299 499
1.047007216489742324e-61 1.045492741873739407e-61 1.043980457853658117e-61 1.042470361352041416e-61 1.040962449234896626e-61 1.039456718281876289e-61 1.037953165277554184e-61 1.036451787237652696e-61 1.034952580865219308e-61 1.033455543064228009e-61 1.031960670757952728e-61 1.030467960708908914e-61 1.028977409879407011e-61 1.027489015116146459e-61 1.026002773285447897e-61 1.024518681288047273e-61 1.023036735999324220e-61 1.021556934328974365e-61 1.020079273205942833e-61 1.018603749459729788e-61 1.017130359998749247e-61 1.015659101854125510e-61 1.014189971824629008e-61 1.012722966861544906e-61 1.011258083935155181e-61 1.009795319975849615e-61 1.008334671801073146e-61 1.006876136482466656e-61 1.005419710890504095e-61 1.003965392031989792e-61 1.002513176757331211e-61 1.001063062169580538e-61 9.996150450989673449e-62 9.981691226278050949e-62 9.967252915810461449e-62 9.952835490930144180e-62 9.938438920267025211e-62 9.924063173656748558e-62 9.909708222132230009e-62 9.895374034459332380e-62 9.881060581610925907e-62 9.866767832156633748e-62 9.852495757441855906e-62 9.838244326700361082e-62 9.824013510643728777e-62 9.809803279452421036e-62 9.795613602922396952e-62 9.781444451606853876e-62 9.767295795673954221e-62 9.753167605477550116e-62 9.739059852122992348e-62 9.724972505056141828e-62 9.710905534760552117e-62 9.696858912750218500e-62 9.682832608885211531e-62 9.668826593212956532e-62 9.654840837793601815e-62 9.640875312617206088e-62 9.626929987860379664e-62 9.613004835284070796e-62 9.599099825149277253e-62 9.585214928459866208e-62 9.571350115703909664e-62 9.557505358526626034e-62 9.543680627361318468e-62 9.529875893518538301e-62 9.516091128487607284e-62 9.502326302414517059e-62 9.488581387287647649e-62 9.474856353339891277e-62 9.461151173191918139e-62 9.447465817298357540e-62 9.433800256434727719e-62 9.420154463614494272e-62 9.406528408734716461e-62 9.392922064066175297e-62 9.379335400141868131e-62 9.365768389585914445e-62 9.352221003424182914e-62 9.338693213270399296e-62 9.325184991050752839e-62 9.311696308324352445e-62 9.298227136556725492e-62 9.284777447931410415e-62 9.271347213591092158e-62 9.257936406474497187e-62 9.244544997671451914e-62 9.231172959526091234e-62 9.217820263615981269e-62 9.204486882097318344e-62 9.191172787433494205e-62 9.177877951725321429e-62 9.164602346447157012e-62 9.151345943783366734e-62 9.138108716490455631e-62 9.124890637096453717e-62 9.111691677107245188e-62 9.098511809397386322e-62 9.085351006217325133e-62 9.072209239726209786e-62 9.059086482520085305e-62 9.045982707365695769e-62 9.032897886673703934e-62 9.019831992895245098e-62 9.006784998652946413e-62 8.993756877001661447e-62 8.980747600249391368e-62 8.967757141006897231e-62 8.954785472576669558e-62 8.941832567386703896e-62 8.928898398296377594e-62 8.915982938204322841e-62 8.903086160566605417e-62 8.890208037581737143e-62 8.877348542396094248e-62 8.864507648839312075e-62 8.851685329358625826e-62 8.838881556572539746e-62 8.826096304939516243e-62 8.813329546512616790e-62 8.800581255567453653e-62 8.787851404494199416e-62 8.775139966620715935e-62 8.762446916078510642e-62 8.749772225759921687e-62 8.737115869234425013e-62 8.724477820236134756e-62 8.711858051648631990e-62 8.699256537030435090e-62 8.686673250736747251e-62 8.674108166146780989e-62 8.661561256301221375e-62 8.649032495918671214e-62 8.636521858116110946e-62 8.624029316554129819e-62 8.611554844931955304e-62 8.599098417988467929e-62 8.586660008870909267e-62 8.574239591766790574e-62 8.561837140775283741e-62 8.549452629534843516e-62 8.537086032344833357e-62 8.524737323168557495e-62 8.512406476379137448e-62 8.500093465890917280e-62 8.487798265657046813e-62 8.475520850656110345e-62 8.463261194914409501e-62 8.451019272619876983e-62 8.438795057629908231e-62 8.426588524945455219e-62 8.414399649233630188e-62 8.402228403974443557e-62 8.390074764399797447e-62 8.377938705042746582e-62 8.365820200107969194e-62 8.353719224689979779e-62 8.341635752703341759e-62 8.329569759800467846e-62 8.317521219728207069e-62 8.305490107846776013e-62 8.293476399066667967e-62 8.281480067611070199e-62 8.269501088585440959e-62 8.257539437490681744e-62 8.245595088540652761e-62 8.233668016349079184e-62 8.221758197123321827e-62 8.209865604949515417e-62 8.197990215625574834e-62 8.186132003313589910e-62 8.174290944239330312e-62 8.162467012876620468e-62 8.150660184332340138e-62 8.138870434815814001e-62 8.127097738556165826e-62 8.115342071595828062e-62 8.103603408475807617e-62 8.091881725543809950e-62 8.080176998001842220e-62 8.068489200853979239e-62 8.056818310197672756e-62 8.045164301342890674e-62 8.033527149987050505e-62 8.021906831045070711e-62 8.010303320869981815e-62 7.998716595380392604e-62 7.987146629366456543e-62 7.975593399399730306e-62 7.964056881270886483e-62 7.952537050342718692e-62 7.941033882362340413e-62 7.929547353920176624e-62 7.918077440370056600e-62 7.906624117909354288e-62 7.895187362424206484e-62 7.883767150295022092e-62 7.872363457247538347e-62 7.860976259272880221e-62 7.849605532968530167e-62 7.838251253937286110e-62 7.826913398616989200e-62 7.815591943933498383e-62 7.804286865026013420e-62 7.792998139115878034e-62 7.781725741981342552e-62 7.770469650229674205e-62 7.759229840049354278e-62 7.748006288228025021e-62 7.736798971135098041e-62 7.725607865287077031e-62 7.714432947234434324e-62 7.703274193225271859e-62 7.692131580327053247e-62 7.681005085303149649e-62 7.669894684168779218e-62 7.658800354425611394e-62 7.647722072380297018e-62 7.636659815042457235e-62 7.625613558566267878e-62 7.614583280694582391e-62 7.603568958202778803e-62 7.592570567126910885e-62 7.581588085417081993e-62 7.570621489839142733e-62 7.559670757083501596e-62 7.548735864095414364e-62 7.537816788731479729e-62 7.526913507453088813e-62 7.516025997633516272e-62 7.505154236131745154e-62 7.494298200932217084e-62 7.483457868850019192e-62 7.472633216626928764e-62 7.461824222452314204e-62 7.451030863242200454e-62 7.440253116380966557e-62 7.429490959501930841e-62 7.418744369945955559e-62 7.408013325194949735e-62 7.397297802440461447e-62 7.386597779660854187e-62 7.375913234435145508e-62 7.365244143731715398e-62 7.354590486267423389e-62 7.343952238968502376e-62 7.333329379758236954e-62 7.322721886271240014e-62 7.312129736387750035e-62 7.301552908125788655e-62 7.290991378579373978e-62 7.280445126468047930e-62 7.269914129268957552e-62 7.259398364916222377e-62 7.248897811586848997e-62 7.238412447172498089e-62 7.227942249702446810e-62 7.217487196712612189e-62 7.207047267346831114e-62 7.196622439098959022e-62 7.186212689916428962e-62 7.175817998406012638e-62 7.165438342890799163e-62 7.155073701204182708e-62 7.144724051733275757e-62 7.134389372688365242e-62 7.124069642830048575e-62 7.113764840326735041e-62 7.103474943482679997e-62 7.093199930840410687e-62 7.082939780973044530e-62 7.072694471866718430e-62 7.062463982877685342e-62 7.052248292054382628e-62 7.042047377581704294e-62 7.031861218905804081e-62 7.021689794477218496e-62 7.011533082778547546e-62 7.001391062528168141e-62 6.991263712780447328e-62 6.981151011501249470e-62 6.971052938416351039e-62 6.960969472162644966e-62 6.950900591509952091e-62 6.940846275158241328e-62 6.930806502040881823e-62 6.920781251625268839e-62 6.910770502400659141e-62 6.900774233592548912e-62 6.890792424255059933e-62 6.880825053572745172e-62 6.870872100459876615e-62 6.860933543862096264e-62 6.851009363553931763e-62 6.841099538341055278e-62 6.831204047359749640e-62 6.821322870273223145e-62 6.811455986078541860e-62 6.801603374002394624e-62 6.791765013499613663e-62 6.781940884449083492e-62 6.772130965475532136e-62 6.762335236615702040e-62 6.752553676851757567e-62 6.742786266277724005e-62 6.733032983936103170e-62 6.723293809586692856e-62 6.713568722724635471e-62 6.703857703167819135e-62 6.694160730177999846e-62 6.684477784021345050e-62 6.674808843824454709e-62 6.665153890007535289e-62 6.655512901369709287e-62 6.645885858582467174e-62 6.636272741279204327e-62 6.626673528737892015e-62 6.617088201617065594e-62 6.607516739542221802e-62 6.597959122457618357e-62 6.588415330240652623e-62 6.578885342798243845e-62 6.569369140544775984e-62 6.559866703062175444e-62 6.550378010821861171e-62 6.540903043941112203e-62 6.531441782375879630e-62 6.521994206301749581e-62 6.512560296112521712e-62 6.503140031945637057e-62 6.493733393684186809e-62 6.484340362279960381e-62 6.474960917861420649e-62 6.465595040492511400e-62 6.456242710455137770e-62 6.446903908810652791e-62 6.437578615427125900e-62 6.428266810952536466e-62 6.418968475688411864e-62 6.409683590525220392e-62 6.400412135727487763e-62 6.391154091682501959e-62 6.381909439549680568e-62 6.372678159585927882e-62 6.363460232263518693e-62 6.354255639100910659e-62 6.345064359885357681e-62 6.335886375820351170e-62 6.326721667305976183e-62 6.317570215323863551e-62 6.308432001065955537e-62 6.299307004833134393e-62 6.290195207964046704e-62 6.281096590999724117e-62 6.272011135332363506e-62 6.262938821194306174e-62 6.253879630214740141e-62 6.244833543410541306e-62 6.235800541100101754e-62 6.226780605173832014e-62 6.217773716639992544e-62 6.208779856173307196e-62 6.199799005200171211e-62 6.190831144902403533e-62 6.181876256579000369e-62 6.172934320926825255e-62 6.164005319928773449e-62 6.155089234695005289e-62 6.146186046274342724e-62 6.137295736190733425e-62 6.128418285904896218e-62 6.119553676547772653e-62 6.110701889634448828e-62 6.101862906795156878e-62 6.093036709419932907e-62 6.084223278926117995e-62 6.075422596669909149e-62 6.066634644918048305e-62 6.057859404637561670e-62 6.049096857441867622e-62 6.040346985234678117e-62 6.031609769681419403e-62 6.022885192123462776e-62 6.014173234455795071e-62 6.005473878773616282e-62 5.996787106498388669e-62 5.988112899341380990e-62 5.979451239475756251e-62 5.970802108230087809e-62 5.962165488350393867e-62 5.953541360697904111e-62 5.944929707809741645e-62 5.936330511554575444e-62 5.927743753827679064e-62 5.919169416637025471e-62 5.910607482446661962e-62 5.902057932799389829e-62 5.893520749695756659e-62 5.884995915590904999e-62 5.876483412621814898e-62 5.867983222609741040e-62 5.859495328085854480e-62 5.851019711519968024e-62 5.842556354300880213e-62 5.834105239461051099e-62 5.825666348782549612e-62 5.817239665007174323e-62 5.808825169885497193e-62 5.800422846547572159e-62 5.792032677048851250e-62 5.783654643808857998e-62 5.775288728852341125e-62 5.766934915574592895e-62 5.758593185798742902e-62 5.750263521962867759e-62 5.741945906948591652e-62 5.733640323327103914e-62 5.725346753361551246e-62 5.717065180007732156e-62 5.708795586161584416e-62 5.700537953830212191e-62 5.692292265795132656e-62 5.684058505275979268e-62 5.675836654688557689e-62 5.667626696640496703e-62 5.659428614424140262e-62 5.651242390613728857e-62 5.643068008056132141e-62 5.634905449377037124e-62 5.626754697883370793e-62 5.618615736332095105e-62 5.610488547260897966e-62 5.602373114457374779e-62 5.594269420426514328e-62 5.586177448188474439e-62 5.578097180625627191e-62 5.570028601375300379e-62 5.561971693043843770e-62 5.553926438668975977e-62 5.545892821878225336e-62 5.537870825514834307e-62 5.529860432850613489e-62 5.521861626859804793e-62 5.513874391424938429e-62 5.505898708926764125e-62 5.497934563375454663e-62 5.489981937842506439e-62 5.482040815504721834e-62 5.474111179962221439e-62 5.466193014281005591e-62 5.458286302347238603e-62 5.450391027275184903e-62 5.442507172442510337e-62 5.434634721646689217e-62 5.426773658154471348e-62 5.418923965652117920e-62 5.411085627376351642e-62 5.403258627218534072e-62 5.395442948777907503e-62 5.387638575207031726e-62 5.379845490859187592e-62 5.372063678934619498e-62 5.364293123284397821e-62 5.356533807548428253e-62 5.348785715624128034e-62 5.341048831198361158e-62 5.333323137904316105e-62 5.325608619787020373e-62 5.317905260604025858e-62 5.310213044213990677e-62 5.302531954344596810e-62 5.294861975132985992e-62 5.287203090353547194e-62 5.279555283958462192e-62 5.271918540229994032e-62 5.264292842705751262e-62 5.256678175637606251e-62 5.249074523070058825e-62 5.241481868994417783e-62 5.233900197577805319e-62 5.226329492857807140e-62 5.218769739199203157e-62 5.211220920305899980e-62 5.203683020967482012e-62 5.196156024707467894e-62 5.188639916510750709e-62 5.181134680098943804e-62 5.173640299746503127e-62 5.166156759976163249e-62 5.158684044956723503e-62 5.151222139180377514e-62 5.143771026562282937e-62 5.136330692238711072e-62 5.128901120244657642e-62 5.121482294565304949e-62 5.114074200476075422e-62 5.106676822006833173e-62 5.099290143583499593e-62 5.091914149951237226e-62 5.084548825358377612e-62
1.041259285533454603e-61 1.039753125197651837e-61 1.038249143446753805e-61 1.036747337174873202e-61 1.035247703295483111e-61 1.033750238605915352e-61 1.032254939923417263e-61 1.030761804265029973e-61 1.029270828336922594e-61 1.027782009090043827e-61 1.026295343449558749e-61 1.024810828195756216e-61 1.023328460307623288e-61 1.021848236619431265e-61 1.020370154103923085e-61 1.018894209574803531e-61 1.017420399954410370e-61 1.015948722228604361e-61 1.014479173269185102e-61 1.013011749967410171e-61 1.011546449219162331e-61 1.010083268116024245e-61 1.008622203415504112e-61 1.007163252129719577e-61 1.005706411201617071e-61 1.004251677637020890e-61 1.002799048256127283e-61 1.001348520102876449e-61 9.999000901087003864e-62 9.984537552822437938e-62 9.970095124766960176e-62 9.955673588110763087e-62 9.941272912198778405e-62 9.926893066566622743e-62 9.912534020650987126e-62 9.898195745663103496e-62 9.883878210261290192e-62 9.869581384734653983e-62 9.855305239987689105e-62 9.841049745387967873e-62 9.826814871351481375e-62 9.812600587336220883e-62 9.798406864415902901e-62 9.784233672278575869e-62 9.770080981653818789e-62 9.755948762743830944e-62 9.741836986078053312e-62 9.727745621520154275e-62 9.713674639686618754e-62 9.699624011659260526e-62 9.685593707854550848e-62 9.671583698591633086e-62 9.657593954374336798e-62 9.643624446591767908e-62 9.629675145270073946e-62 9.615746020901579366e-62 9.601837045419758886e-62 9.587948188980033117e-62 9.574079422480624706e-62 9.560230717279219471e-62 9.546402043800683024e-62 9.532593373624823437e-62 9.518804676846461325e-62 9.505035925544311035e-62 9.491287090728343781e-62 9.477558142761483124e-62 9.463849054394301051e-62 9.450159795522335133e-62 9.436490338150427658e-62 9.422840653086846944e-62 9.409210712553691917e-62 9.395600487579157835e-62 9.382009948962077137e-62 9.368439069864072345e-62 9.354887820075198867e-62 9.341356172427455671e-62 9.327844097750758493e-62 9.314351568276168875e-62 9.300878555595835974e-62 9.287425031478734495e-62 9.273990967599729090e-62 9.260576335809991791e-62 9.247181108270548267e-62 9.233805256644042990e-62 9.220448752769451995e-62 9.207111569196974342e-62 9.193793677577676856e-62 9.180495050273348489e-62 9.167215658884189033e-62 9.153955475986249055e-62 9.140714473927485820e-62 9.127492625228096338e-62 9.114289901253203892e-62 9.101106274737769734e-62 9.087941718057721951e-62 9.074796204157175976e-62 9.061669704830301675e-62 9.048562192968326587e-62 9.035473640842561979e-62 9.022404021159443838e-62 9.009353306139910389e-62 8.996321468963181208e-62 8.983308482322102408e-62 8.970314318557414869e-62 8.957338950963993741e-62 8.944382351961973929e-62 8.931444494402989594e-62 8.918525351048162668e-62 8.905624895476142433e-62 8.892743100006920513e-62 8.879879937907869313e-62 8.867035382225847039e-62 8.854209406175540284e-62 8.841401982366530405e-62 8.828613084092614756e-62 8.815842685455390259e-62 8.803090758924689519e-62 8.790357277141425910e-62 8.777642215088032005e-62 8.764945544587242659e-62 8.752267240056451847e-62 8.739607274037958260e-62 8.726965620514578689e-62 8.714342253377747169e-62 8.701737145162117657e-62 8.689150270596015556e-62 8.676581602924245237e-62 8.664031115179809034e-62 8.651498781318720526e-62 8.638984575584999146e-62 8.626488471881140135e-62 8.614010442893346663e-62 8.601550463730432994e-62 8.589108507656971686e-62 8.576684548727760266e-62 8.564278560286825774e-62 8.551890517710598335e-62 8.539520393919858457e-62 8.527168163120277533e-62 8.514833799926019453e-62 8.502517278119721530e-62 8.490218572017755290e-62 8.477937655726363919e-62 8.465674503759355573e-62 8.453429090174284446e-62 8.441201389067292857e-62 8.428991375431672500e-62 8.416799023559333817e-62 8.404624307902212001e-62 8.392467202216441689e-62 8.380327681884648597e-62 8.368205721468939520e-62 8.356101294960238882e-62 8.344014377239678727e-62 8.331944943223675027e-62 8.319892967621726339e-62 8.307858424817234677e-62 8.295841289594391093e-62 8.283841537376587470e-62 8.271859142296065315e-62 8.259894079727591428e-62 8.247946324599373608e-62 8.236015851636182612e-62 8.224102635720072826e-62 8.212206652367463214e-62 8.200327876292802587e-62 8.188466282367825107e-62 8.176621846453532866e-62 8.164794543135795940e-62 8.152984348107603216e-62 8.141191236028809098e-62 8.129415182663184510e-62 8.117656163334995395e-62 8.105914152696454875e-62 8.094189127324099242e-62 8.082481061823756758e-62 8.070789931898584534e-62 8.059115712699477428e-62 8.047458380234547754e-62 8.035817910076829743e-62 8.024194277601159287e-62 8.012587458452202455e-62 8.000997428659143809e-62 7.989424163703018207e-62 7.977867638985247121e-62 7.966327830523969455e-62 7.954804714602520124e-62 7.943298266265042306e-62 7.931808462095786120e-62 7.920335277903074755e-62 7.908878689415635289e-62 7.897438672398307804e-62 7.886015203570030374e-62 7.874608258419938582e-62 7.863217813047228683e-62 7.851843844156969064e-62 7.840486327458598786e-62 7.829145239154388504e-62 7.817820555481032640e-62 7.806512252936799617e-62 7.795220307485786651e-62 7.783944695468154646e-62 7.772685394276252102e-62 7.761442378733000695e-62 7.750215626411341571e-62 7.739005113222497006e-62 7.727810816014615111e-62 7.716632711106407136e-62 7.705470775076076153e-62 7.694324984759637321e-62 7.683195316690225001e-62 7.672081747435404233e-62 7.660984253374155499e-62 7.649902812145605813e-62 7.638837400194603715e-62 7.627787993779523866e-62 7.616754570525549322e-62 7.605737106758725170e-62 7.594735579725887379e-62 7.583749965822479557e-62 7.572780242913064674e-62 7.561826387459888829e-62 7.550888376181395246e-62 7.539966186818622911e-62 7.529059796484575678e-62 7.518169181997152614e-62 7.507294319990722113e-62 7.496435189099394534e-62 7.485591765476645315e-62 7.474764026511669027e-62 7.463951949734508378e-62 7.453155512598306175e-62 7.442374692696650054e-62 7.431609466356871026e-62 7.420859812320965922e-62 7.410125707199423266e-62 7.399407128824742524e-62 7.388704054737526712e-62 7.378016462403499805e-62 7.367344329857493747e-62 7.356687633986660175e-62 7.346046352890724928e-62 7.335420464485747585e-62 7.324809945759493738e-62 7.314214775439229505e-62 7.303634931003450896e-62 7.293070389858488365e-62 7.282521129975070165e-62 7.271987129672791215e-62 7.261468366772430835e-62 7.250964818810761036e-62 7.240476464201783875e-62 7.230003280862841403e-62 7.219545246743676844e-62 7.209102340141102906e-62 7.198674538858642980e-62 7.188261821360909663e-62 7.177864165411142941e-62 7.167481549849567424e-62 7.157113952606949224e-62 7.146761351751335848e-62 7.136423725694948577e-62 7.126101052984480744e-62 7.115793311989661952e-62 7.105500480697913303e-62 7.095222537853040907e-62 7.084959461918948330e-62 7.074711231493645018e-62 7.064477824897244923e-62 7.054259220687421402e-62 7.044055397657873438e-62 7.033866334017944892e-62 7.023692009134571659e-62 7.013532401074639685e-62 7.003387488448988308e-62 6.993257250408662164e-62 6.983141665726623067e-62 6.973040713105069790e-62 6.962954371277445903e-62 6.952882619311932869e-62 6.942825435598890371e-62 6.932782799570982456e-62 6.922754690184737017e-62 6.912741086427118397e-62 6.902741967014147559e-62 6.892757310794239657e-62 6.882787097949328404e-62 6.872831306384934661e-62 6.862889915741509557e-62 6.852962905287891610e-62 6.843050254123312764e-62 6.833151941477109706e-62 6.823267946410076517e-62 6.813398248509901654e-62 6.803542826897482616e-62 6.793701660823642011e-62 6.783874730161952245e-62 6.774062013925777566e-62 6.764263491455850869e-62 6.754479142319796198e-62 6.744708946408811517e-62 6.734952882661412262e-62 6.725210930929915501e-62 6.715483070801336931e-62 6.705769282184967287e-62 6.696069543946037208e-62 6.686383836443232549e-62 6.676712139089099405e-62 6.667054431715305763e-62 6.657410693891636438e-62 6.647780905798696035e-62 6.638165046967894555e-62 6.628563097443796222e-62 6.618975036624765676e-62 6.609400844999029575e-62 6.599840502504290786e-62 6.590293988435964774e-62 6.580761283654531608e-62 6.571242367705676871e-62 6.561737220644179651e-62 6.552245822458322260e-62 6.542768153451373991e-62 6.533304193954271825e-62 6.523853923661034454e-62 6.514417323150290219e-62 6.504994372648473284e-62 6.495585052127050479e-62 6.486189342059624838e-62 6.476807222758722760e-62 6.467438674659463649e-62 6.458083677567015411e-62 6.448742212725830802e-62 6.439414260185646249e-62 6.430099800400968491e-62 6.420798813387402088e-62 6.411511280497681806e-62 6.402237181989893366e-62 6.392976497872801484e-62 6.383729209394156205e-62 6.374495296991154796e-62 6.365274741315354588e-62 6.356067522768819186e-62 6.346873622522040336e-62 6.337693021217387351e-62 6.328525699157262449e-62 6.319371637870026384e-62 6.310230817530174537e-62 6.301103219352297522e-62 6.291988824027200603e-62 6.282887612365845784e-62 6.273799565663824894e-62 6.264724664604055785e-62 6.255662890171681617e-62 6.246614223561148277e-62 6.237578645993317964e-62 6.228556137446504264e-62 6.219546680376373075e-62 6.210550255360191679e-62 6.201566843095920406e-62 6.192596425482884038e-62 6.183638983543619483e-62 6.174694498328898736e-62 6.165762950917683976e-62 6.156844323044241213e-62 6.147938595841063915e-62 6.139045750379377981e-62 6.130165768383394331e-62 6.121298631245902281e-62 6.112444320297661001e-62 6.103602816807999734e-62 6.094774102517568346e-62 6.085958158749459683e-62 6.077154967031421328e-62 6.068364509094533412e-62 6.059586766342820042e-62 6.050821720472123187e-62 6.042069352940609688e-62 6.033329645848605967e-62 6.024602580356057284e-62 6.015888138527873997e-62 6.007186301928893446e-62 5.998497052587824901e-62 5.989820371773767015e-62 5.981156241742592246e-62 5.972504644339393693e-62 5.963865561261954735e-62 5.955238974321946500e-62 5.946624865876934056e-62 5.938023217357616907e-62 5.929434011345508927e-62 5.920857229066138437e-62 5.912292853066087735e-62 5.903740865227653671e-62 5.895201247545877410e-62 5.886673982470524621e-62 5.878159052218645590e-62 5.869656438434741130e-62 5.861166123474415898e-62 5.852688089547722294e-62 5.844222319060533523e-62 5.835768794018825867e-62 5.827327497049303678e-62 5.818898410378945385e-62 5.810481516007147371e-62 5.802076796551831007e-62 5.793684234317724417e-62 5.785303812056452405e-62 5.776935511282147637e-62 5.768579315722235599e-62 5.760235207194298014e-62 5.751903168214738951e-62 5.743583181074510983e-62 5.735275229009325524e-62 5.726979294359517623e-62 5.718695359242400183e-62 5.710423406966687878e-62 5.702163419866624667e-62 5.693915380552019101e-62 5.685679271906409140e-62 5.677455076919987698e-62 5.669242778028992749e-62 5.661042357778876116e-62 5.652853799481750804e-62 5.644677085814598350e-62 5.636512199398150329e-62 5.628359123534570020e-62 5.620217841057689913e-62 5.612088334908191768e-62 5.603970587480597409e-62 5.595864582581691804e-62 5.587770302818455161e-62 5.579687731068377530e-62 5.571616850883043371e-62 5.563557645107074341e-62 5.555510096772648952e-62 5.547474188856112884e-62 5.539449904923405638e-62 5.531437227918543398e-62 5.523436141052393047e-62 5.515446627720626840e-62 5.507468671101804619e-62 5.499502254559225097e-62 5.491547360920515678e-62 5.483603974237180984e-62 5.475672077305768577e-62 5.467751653825365220e-62 5.459842687199448538e-62 5.451945160617494489e-62 5.444059057690437874e-62 5.436184361814908699e-62 5.428321056648877794e-62 5.420469125557751961e-62 5.412628552089216430e-62 5.404799320050703881e-62 5.396981412722289727e-62 5.389174813958560128e-62 5.381379507244885177e-62 5.373595476247597242e-62 5.365822704890902092e-62 5.358061176341544428e-62 5.350310874960844508e-62 5.342571784274847916e-62 5.334843887834444764e-62 5.327127169757968073e-62 5.319421613875744143e-62 5.311727203964195765e-62 5.304043923591995786e-62 5.296371757354867352e-62 5.288710688559465411e-62 5.281060701307765218e-62 5.273421779724068251e-62 5.265793907648464861e-62 5.258177069174636128e-62 5.250571248342532343e-62 5.242976429291487099e-62 5.235392595802518492e-62 5.227819732290028128e-62 5.220257822733851657e-62 5.212706851365221006e-62 5.205166802362105393e-62 5.197637659849722595e-62 5.190119408203161515e-62 5.182612031366954873e-62 5.175115514063248097e-62 5.167629840056736061e-62 5.160154994414417629e-62 5.152690960647020411e-62 5.145237723490675247e-62 5.137795267402903270e-62 5.130363576564760265e-62 5.122942635702995602e-62 5.115532428671866404e-62 5.108132940912567220e-62 5.100744156175964690e-62 5.093366058906720691e-62 5.085998634238415495e-62 5.078641866436716884e-62 5.071295740012724782e-62 5.063960239500267779e-62 5.056635349750199577e-62
1.035542909821257275e-61 1.034045018106423232e-61 1.032549293016351145e-61 1.031055731477208227e-61 1.029564330419347130e-61 1.028075086612735796e-61 1.026587996937040857e-61 1.025103058380862809e-61 1.023620267728165890e-61 1.022139621931633980e-61 1.020661117873838054e-61 1.019184752427091389e-61 1.017710522557218488e-61 1.016238425115869559e-61 1.014768457077640516e-61 1.013300615303283398e-61 1.011834896717243541e-61 1.010371298307226736e-61 1.008909817006314315e-61 1.007450449664061525e-61 1.005993193237437514e-61 1.004538044804692081e-61 1.003085001155794364e-61 1.001634059348416936e-61 1.000185216298498680e-61 9.987384690138308698e-62 9.972938143902434151e-62 9.958512494443036629e-62 9.944107711532942384e-62 9.929723765277689518e-62 9.915360624381936320e-62 9.901018260194031180e-62 9.886696642083332373e-62 9.872395740040649955e-62 9.858115523382931022e-62 9.843855963766574367e-62 9.829617029878294052e-62 9.815398692170311616e-62 9.801200921706847233e-62 9.787023687596386433e-62 9.772866961414683471e-62 9.758730712216897263e-62 9.744614910951944769e-62 9.730519527758708336e-62 9.716444533668851507e-62 9.702389898906355707e-62 9.688355594021469900e-62 9.674341589325481992e-62 9.660347855314421355e-62 9.646374363650588741e-62 9.632421084491138903e-62 9.618487988318768693e-62 9.604575045939609842e-62 9.590682229039401663e-62 9.576809507529517007e-62 9.562956852482356224e-62 9.549124235428437316e-62 9.535311627104498672e-62 9.521518998429375746e-62 9.507746320641279873e-62 9.493993565019425185e-62 9.480260702608059851e-62 9.466547703942892982e-62 9.452854541531039520e-62 9.439181185853636625e-62 9.425527608261055279e-62 9.411893780966873965e-62 9.398279674580143589e-62 9.384685260711943790e-62 9.371110510741096542e-62 9.357555396905434142e-62 9.344019890120254672e-62 9.330503962024765771e-62 9.317007585112684228e-62 9.303530730153980408e-62 9.290073369587286164e-62 9.276635474268253014e-62 9.263217017255553444e-62 9.249817969622518781e-62 9.236438303563097497e-62 9.223077991041864881e-62 9.209737004063948214e-62 9.196415314674971500e-62 9.183112894693729774e-62 9.169829716247819823e-62 9.156565752038136669e-62 9.143320974004430069e-62 9.130095354526782107e-62 9.116888865361304781e-62 9.103701479234604712e-62 9.090533168646444007e-62 9.077383906003695874e-62 9.064253663357438920e-62 9.051142413196037238e-62 9.038050128310687352e-62 9.024976781793464719e-62 9.011922345199395060e-62 8.998886791962525380e-62 8.985870094244295883e-62 8.972872225162699168e-62 8.959893156829840462e-62 8.946932862833139942e-62 8.933991316014790708e-62 8.921068488477358477e-62 8.908164353922718566e-62 8.895278884922413463e-62 8.882412054606376132e-62 8.869563835884705866e-62 8.856734201965011058e-62 8.843923126093097872e-62 8.831130581038872951e-62 8.818356540254928607e-62 8.805600977231137765e-62 8.792863864598941649e-62 8.780145175798752120e-62 8.767444884946762955e-62 8.754762964919295664e-62 8.742099388379693479e-62 8.729454130320700559e-62 8.716827162973991613e-62 8.704218460643524540e-62 8.691627996402328590e-62 8.679055743869765671e-62 8.666501677333929042e-62 8.653965769732118471e-62 8.641447995427302799e-62 8.628948328063401743e-62 8.616466740946845644e-62 8.604003208050877234e-62 8.591557703760914210e-62 8.579130201997883123e-62 8.566720675723138927e-62 8.554329100431111174e-62 8.541955449159158285e-62 8.529599695980932270e-62 8.517261815007588564e-62 8.504941781006548506e-62 8.492639567666779798e-62 8.480355149087682322e-62 8.468088500022785276e-62 8.455839594398654630e-62 8.443608406549792683e-62 8.431394910970514036e-62 8.419199082068982323e-62 8.407020894290379255e-62 8.394860321628204560e-62 8.382717339579514915e-62 8.370591922210873763e-62 8.358484044115001390e-62 8.346393679435547678e-62 8.334320803447194873e-62 8.322265391094443767e-62 8.310227416268612672e-62 8.298206854351529322e-62 8.286203679913941860e-62 8.274217867925644691e-62 8.262249393271892766e-62 8.250298230634143001e-62 8.238364355690597434e-62 8.226447742236148101e-62 8.214548366499532058e-62 8.202666203067583178e-62 8.190801226804352890e-62 8.178953412849322491e-62 8.167122736972173501e-62 8.155309174025652602e-62 8.143512698544913107e-62 8.131733287235018224e-62 8.119970914110849107e-62 8.108225555590324996e-62 8.096497186235754772e-62 8.084785781826312827e-62 8.073091318174678436e-62 8.061413769719276370e-62 8.049753113165741548e-62 8.038109323376798885e-62 8.026482376422583928e-62 8.014872247006244196e-62 8.003278911851436567e-62 7.991702346547990892e-62 7.980142526140922604e-62 7.968599427105866456e-62 7.957073025023142151e-62 7.945563295740645530e-62 7.934070214910291863e-62 7.922593758681377545e-62 7.911133903121576817e-62 7.899690623757900042e-62 7.888263896958280315e-62 7.876853699123343808e-62 7.865460005999606382e-62 7.854082793027293540e-62 7.842722037625277183e-62 7.831377715188335843e-62 7.820049801946883720e-62 7.808738274620244062e-62 7.797443109278631870e-62 7.786164282254473495e-62 7.774901769461873102e-62 7.763655548207449671e-62 7.752425593908909034e-62 7.741211883713665860e-62 7.730014394574281265e-62 7.718833101677523887e-62 7.707667982943776571e-62 7.696519013967537019e-62 7.685386171948701032e-62 7.674269433447663902e-62 7.663168774947696482e-62 7.652084173635172061e-62 7.641015606060380750e-62 7.629963049030558538e-62 7.618926478721272183e-62 7.607905873338208131e-62 7.596901208901822370e-62 7.585912462243825791e-62 7.574939611111756097e-62 7.563982631741007968e-62 7.553041501833539137e-62 7.542116197584169835e-62 7.531206696760272455e-62 7.520312976720786478e-62 7.509435013654405637e-62 7.498572785861791779e-62 7.487726270144805741e-62 7.476895443775969183e-62 7.466080283408807249e-62 7.455280767686237463e-62 7.444496873109784946e-62 7.433728576975954863e-62 7.422975857262671121e-62 7.412238691222333110e-62 7.401517056356593859e-62 7.390810929984548159e-62 7.380120289888615197e-62 7.369445113775174427e-62 7.358785379168224099e-62 7.348141063517806639e-62 7.337512144734610790e-62 7.326898600760350734e-62 7.316300408715992873e-62 7.305717547034118254e-62 7.295149993326466012e-62 7.284597724920070168e-62 7.274060720870684736e-62 7.263538958251033619e-62 7.253032415015041675e-62 7.242541069359311828e-62 7.232064899511064810e-62 7.221603883202665439e-62 7.211157998409928672e-62 7.200727223560119992e-62 7.190311536482547804e-62 7.179910915771324050e-62 7.169525339215066959e-62 7.159154785365591115e-62 7.148799232388264144e-62 7.138458658064976702e-62 7.128133041871659177e-62 7.117822361340996081e-62 7.107526594869193781e-62 7.097245721090265048e-62 7.086979718668232474e-62 7.076728565885164233e-62 7.066492240849779007e-62 7.056270722525701892e-62 7.046063989495069921e-62 7.035872020575769391e-62 7.025694794104253022e-62 7.015532288755911195e-62 7.005384483440862760e-62 6.995251356284491612e-62 6.985132887174478204e-62 6.975029054094235591e-62 6.964939835670674158e-62 6.954865211372150375e-62 6.944805160087721204e-62 6.934759660333324855e-62 6.924728691262339456e-62 6.914712231856176294e-62 6.904710260825220369e-62 6.894722757513949219e-62 6.884749701195222365e-62 6.874791070770848937e-62 6.864846845273921645e-62 6.854917003768295231e-62 6.845001525846580764e-62 6.835100390333468118e-62 6.825213576681924108e-62 6.815341064175422970e-62 6.805482832325469197e-62 6.795638860079007990e-62 6.785809126810141539e-62 6.775993612317221220e-62 6.766192295736879631e-62 6.756405156433850447e-62 6.746632174294021248e-62 6.736873328642464967e-62 6.727128598737122143e-62 6.717397964453713862e-62 6.707681405598188739e-62 6.697978901420048913e-62 6.688290431881797735e-62 6.678615976390531876e-62 6.668955515160774496e-62 6.659309027270689602e-62 6.649676493089604540e-62 6.640057892046463759e-62 6.630453204277046696e-62 6.620862409366532999e-62 6.611285487604334362e-62 6.601722418538162416e-62 6.592173182418482326e-62 6.582637758948335850e-62 6.573116128435282727e-62 6.563608270832068302e-62 6.554114166025476591e-62 6.544633794313161649e-62 6.535167136115547573e-62 6.525714171120449692e-62 6.516274879521248963e-62 6.506849241729349867e-62 6.497437238089117769e-62 6.488038848595287064e-62 6.478654053744144546e-62 6.469282834059367482e-62 6.459925169527965214e-62 6.450581040730737219e-62 6.441250428088294138e-62 6.431933312049565469e-62 6.422629672717916519e-62 6.413339491253707082e-62 6.404062748002987435e-62 6.394799423341047335e-62 6.385549497672373693e-62 6.376312952080115502e-62 6.367089767024198696e-62 6.357879922993617688e-62 6.348683400875935569e-62 6.339500181585558371e-62 6.330330245510987459e-62 6.321173573438635665e-62 6.312030146550112938e-62 6.302899945502341397e-62 6.293782950797844879e-62 6.284679144157845326e-62 6.275588505865280760e-62 6.266511016963905426e-62 6.257446658524497869e-62 6.248395411190189111e-62 6.239357256723225487e-62 6.230332175730456610e-62 6.221320149210883238e-62 6.212321158733790336e-62 6.203335185170995533e-62 6.194362209152744687e-62 6.185402212779800351e-62 6.176455177096355487e-62 6.167521082456809822e-62 6.158599911309124926e-62 6.149691644689754892e-62 6.140796263306309241e-62 6.131913749146256083e-62 6.123044083329385946e-62 6.114187247359850675e-62 6.105343222501640632e-62 6.096511990401477851e-62 6.087693532820453148e-62 6.078887830837209160e-62 6.070094866001336935e-62 6.061314620241930129e-62 6.052547074984233643e-62 6.043792211505228362e-62 6.035050012076541705e-62 6.026320458115829972e-62 6.017603531156339397e-62 6.008899212933672870e-62 6.000207485733736851e-62 5.991528330645151344e-62 5.982861730005791816e-62 5.974207665481322875e-62 5.965566118851496367e-62 5.956937071922794810e-62 5.948320506788074340e-62 5.939716405565340485e-62 5.931124750052476726e-62 5.922545521902079420e-62 5.913978703741436725e-62 5.905424277189127127e-62 5.896882224836103834e-62 5.888352527925279772e-62 5.879835169270551703e-62 5.871330130853309601e-62 5.862837394511121007e-62 5.854356943131611380e-62 5.845888758518303621e-62 5.837432823012565663e-62 5.828989118811294433e-62 5.820557628137503491e-62 5.812138333663181803e-62 5.803731217408266019e-62 5.795336261926172237e-62 5.786953449963239062e-62 5.778582763280229996e-62 5.770224184674823940e-62 5.761877696465048718e-62 5.753543281665034977e-62 5.745220921806432121e-62 5.736910600622518372e-62 5.728612300197781421e-62 5.720326002977762120e-62 5.712051691600359887e-62 5.703789349143594880e-62 5.695538957879350148e-62 5.687300500686280761e-62 5.679073960136524303e-62 5.670859319405797589e-62 5.662656560868336083e-62 5.654465667337078794e-62 5.646286622142810124e-62 5.638119407653739219e-62 5.629964006593428516e-62 5.621820402529220029e-62 5.613688577905726223e-62 5.605568515602941637e-62 5.597460199177607388e-62 5.589363611313080231e-62 5.581278734881612379e-62 5.573205552943142444e-62 5.565144049068009191e-62 5.557094205796947367e-62 5.549056006344398367e-62 5.541029434190630898e-62 5.533014472355312255e-62 5.525011104044172526e-62 5.517019312166100283e-62 5.509039080618104273e-62 5.501070392196988550e-62 5.493113230126201171e-62 5.485167578292363298e-62 5.477233419566822077e-62 5.469310737643669112e-62 5.461399515285511822e-62 5.453499736869831329e-62 5.445611384969956146e-62 5.437734443612539455e-62 5.429868896212813571e-62 5.422014725894740475e-62 5.414171916753845933e-62 5.406340451804851304e-62 5.398520315189257859e-62 5.390711490284670989e-62 5.382913960415427332e-62 5.375127709869967386e-62 5.367352721863268850e-62 5.359588980416544123e-62 5.351836468793972019e-62 5.344095171219169955e-62 5.336365071315313638e-62 5.328646152574860864e-62 5.320938399289788640e-62 5.313241795154238661e-62 5.305556323963813785e-62 5.297881969614989908e-62 5.290218716181498559e-62 5.282566547605697872e-62 5.274925447469373850e-62 5.267295400376166419e-62 5.259676389877786988e-62 5.252068400163154576e-62 5.244471415138127413e-62 5.236885419189746861e-62 5.229310396117540915e-62 5.221746330201713758e-62 5.214193205744547939e-62 5.206651006540006306e-62 5.199119717088052442e-62 5.191599321380923535e-62 5.184089803736750367e-62 5.176591148722004517e-62 5.169103340247193930e-62 5.161626362773511836e-62 5.154160200483965797e-62 5.146704838184249261e-62 5.139260259503504664e-62 5.131826449740717359e-62 5.124403392571706544e-62 5.116991072741614037e-62 5.109589474718935813e-62 5.102198582920386245e-62 5.094818382082100490e-62 5.087448856146976440e-62 5.080089990562208192e-62 5.072741769242007742e-62 5.065404176863855980e-62 5.058077198421494608e-62 5.050760818193790930e-62 5.043455021071085803e-62 5.036159791524903905e-62 5.028875114416086669e-62
1.029857916240419823e-61 1.028368247782870555e-61 1.026880734010684020e-61 1.025395371956626083e-61 1.023912158478307461e-61 1.022431090452892887e-61 1.020952164717558179e-61 1.019475378277500477e-61 1.018000727978845949e-61 1.016528210702124499e-61 1.015057823480217541e-61 1.013589563084291373e-61 1.012123426541204375e-61 1.010659410749305281e-61 1.009197512626242591e-61 1.007737729138180728e-61 1.006280057138398853e-61 1.004824493719063088e-61 1.003371035742295341e-61 1.001919680148036481e-61 1.000470423895275655e-61 9.990232640200887976e-62 9.975781974318742755e-62 9.961352211027352585e-62 9.946943320091551809e-62 9.932555272042596727e-62 9.918188035286301381e-62 9.903841581018727419e-62 9.889515878313299255e-62 9.875210898303766854e-62 9.860926609290738452e-62 9.846662982780486872e-62 9.832419988454227616e-62 9.818197596467517746e-62 9.803995776591084926e-62 9.789814499923388281e-62 9.775653736178433119e-62 9.761513455400603103e-62 9.747393628813595622e-62 9.733294226121014583e-62 9.719215218346260442e-62 9.705156575281138296e-62 9.691118268315482962e-62 9.677100266905354665e-62 9.663102542805751337e-62 9.649125066122684341e-62 9.635167807708896534e-62 9.621230738038664506e-62 9.607313828049597016e-62 9.593417049139550153e-62 9.579540371630114775e-62 9.565683766445036862e-62 9.551847204272122271e-62 9.538030657091952565e-62 9.524234095396867744e-62 9.510457489309111712e-62 9.496700811900451112e-62 9.482964032961317887e-62 9.469247123985381238e-62 9.455550056643944259e-62 9.441872801685715067e-62 9.428215331138886422e-62 9.414577615014133296e-62 9.400959626381103014e-62 9.387361335609180717e-62 9.373782714479430019e-62 9.360223735221173139e-62 9.346684368332786758e-62 9.333164586397278739e-62 9.319664359727664223e-62 9.306183661935938468e-62 9.292722463418586911e-62 9.279280735971100750e-62 9.265858452643293487e-62 9.252455583691233367e-62 9.239072102513294836e-62 9.225707979452113367e-62 9.212363188117604626e-62 9.199037699607462575e-62 9.185731486134614529e-62 9.172444520085084256e-62 9.159176773217253339e-62 9.145928218396825983e-62 9.132698827063978960e-62 9.119488571499905041e-62 9.106297424953486595e-62 9.093125358855759873e-62 9.079972346400812479e-62 9.066838359102845239e-62 9.053723370102266791e-62 9.040627351917676454e-62 9.027550277107434466e-62 9.014492117876056515e-62 9.001452846731951240e-62 8.988432436877859689e-62 8.975430861161175663e-62 8.962448091946327328e-62 8.949484102290574288e-62 8.936538864508755831e-62 8.923612352126719703e-62 8.910704537279439709e-62 8.897815393569858673e-62 8.884944894248410020e-62 8.872093011312042579e-62 8.859259718865400116e-62 8.846444989501313273e-62 8.833648796497229408e-62 8.820871112783608448e-62 8.808111911972051840e-62 8.795371167326698607e-62 8.782648851639140812e-62 8.769944938763504241e-62 8.757259402207213969e-62 8.744592214624709337e-62 8.731943349856897612e-62 8.719312781907754198e-62 8.706700484056453688e-62 8.694106428862834832e-62 8.681530591710145151e-62 8.668972944855800317e-62 8.656433462744831771e-62 8.643912118472306536e-62 8.631408886054169746e-62 8.618923739793698768e-62 8.606456652776766564e-62 8.594007599382028707e-62 8.581576553648392176e-62 8.569163488778898556e-62 8.556768379139249169e-62 8.544391199006268800e-62 8.532031922692907327e-62 8.519690523308419272e-62 8.507366975986038530e-62 8.495061254530851267e-62 8.482773332910890881e-62 8.470503185256175927e-62 8.458250786596266550e-62 8.446016111010393724e-62 8.433799132370891736e-62 8.421599825570425368e-62 8.409418164923982634e-62 8.397254124662036274e-62 8.385107679663498836e-62 8.372978804476496885e-62 8.360867473199311058e-62 8.348773660698742540e-62 8.336697341876895445e-62 8.324638491549980283e-62 8.312597083965293052e-62 8.300573094013425852e-62 8.288566496741385618e-62 8.276577266990343113e-62 8.264605379156797963e-62 8.252650808517018015e-62 8.240713530021715192e-62 8.228793518777577536e-62 8.216890749328926514e-62 8.205005197214170505e-62 8.193136837528122816e-62 8.181285644925406062e-62 8.169451595169310994e-62 8.157634663224631676e-62 8.145834824211951742e-62 8.134052053169989129e-62 8.122286326356543329e-62 8.110537618289293231e-62 8.098805903997779981e-62 8.087091160079071497e-62 8.075393360926244029e-62 8.063712483086166901e-62 8.052048500674427633e-62 8.040401390658235143e-62 8.028771128045838969e-62 8.017157687650848405e-62 8.005561046773274037e-62 7.993981179830680834e-62 7.982418063374069665e-62 7.970871672012973707e-62 7.959341982946812908e-62 7.947828971435795295e-62 7.936332613009404629e-62 7.924852884041279057e-62 7.913389760361454824e-62 7.901943218295381984e-62 7.890513232938219291e-62 7.879099780801004606e-62 7.867702838541257302e-62 7.856322381361552795e-62 7.844958385760059330e-62 7.833610828381445660e-62 7.822279685219211699e-62 7.810964931847915101e-62 7.799666545469400849e-62 7.788384501841190736e-62 7.777118777550529038e-62 7.765869348878523402e-62 7.754636192592461493e-62 7.743419284815674202e-62 7.732218601932539616e-62 7.721034120811503433e-62 7.709865817679849242e-62 7.698713669360865079e-62 7.687577652822257308e-62 7.676457744058230557e-62 7.665353920216077724e-62 7.654266157805907420e-62 7.643194433706440654e-62 7.632138724496175857e-62 7.621099007342960870e-62 7.610075258892519788e-62 7.599067456488806610e-62 7.588075576402418766e-62 7.577099595602719903e-62 7.566139491863101820e-62 7.555195241556505726e-62 7.544266821861399362e-62 7.533354210098408710e-62 7.522457383401083070e-62 7.511576318826739419e-62 7.500710993029758744e-62 7.489861384117551347e-62 7.479027469028235215e-62 7.468209224734705323e-62 7.457406629004215746e-62 7.446619659417572591e-62 7.435848292829628226e-62 7.425092506347163283e-62 7.414352278514089384e-62 7.403627586069140431e-62 7.392918406648622866e-62 7.382224717813299112e-62 7.371546497585468303e-62 7.360883723267554831e-62 7.350236371982291197e-62 7.339604422276291281e-62 7.328987851337031210e-62 7.318386637239271386e-62 7.307800757662732272e-62 7.297230190319880956e-62 7.286674913273990871e-62 7.276134904089737488e-62 7.265610140788539914e-62 7.255100601528729893e-62 7.244606263866774216e-62 7.234127106656681683e-62 7.223663107097503478e-62 7.213214243579549195e-62 7.202780493998951316e-62 7.192361836808033170e-62 7.181958250175394904e-62 7.171569711883772654e-62 7.161196200791944974e-62 7.150837694537854000e-62 7.140494171833580010e-62 7.130165610901403847e-62 7.119851989891948610e-62 7.109553287712547121e-62 7.099269481749177842e-62 7.089000551900819059e-62 7.078746475720039199e-62 7.068507231618789229e-62 7.058282798554247346e-62 7.048073154999432593e-62 7.037878279868607455e-62 7.027698150775734880e-62 7.017532747413973394e-62 7.007382048175796815e-62 6.997246031689911850e-62 6.987124676921406563e-62 6.977017962357270727e-62 6.966925867327992151e-62 6.956848369774456809e-62 6.946785449695198147e-62 6.936737085396824875e-62 6.926703255421549883e-62 6.916683939552185491e-62 6.906679116491731046e-62 6.896688765376744012e-62 6.886712864972665826e-62 6.876751394677377503e-62 6.866804333217780715e-62 6.856871660051751075e-62 6.846953354466301059e-62 6.837049395678484128e-62 6.827159762736717010e-62 6.817284434720587819e-62 6.807423391533296200e-62 6.797576612016431281e-62 6.787744075735763783e-62 6.777925761989864828e-62 6.768121650501637636e-62 6.758331720431951346e-62 6.748555951169511045e-62 6.738794322623572925e-62 6.729046813947387298e-62 6.719313404814955078e-62 6.709594075026888592e-62 6.699888804217181704e-62 6.690197571659864135e-62 6.680520357243926443e-62 6.670857141177821423e-62 6.661207902436394283e-62 6.651572621286578498e-62 6.641951277345178501e-62 6.632343850838401323e-62 6.622750320862898420e-62 6.613170668088653253e-62 6.603604871961029356e-62 6.594052912628903779e-62 6.584514769981582300e-62 6.574990424224911320e-62 6.565479855210378834e-62 6.555983043296457385e-62 6.546499967916147832e-62 6.537030609961991154e-62 6.527574949305986247e-62 6.518132965850483821e-62 6.508704640191142744e-62 6.499289952760887969e-62 6.489888883359045897e-62 6.480501412193431975e-62 6.471127519971730857e-62 6.461767186957746271e-62 6.452420393444237291e-62 6.443087119846636310e-62 6.433767346983198576e-62 6.424461054856907753e-62 6.415168224061818973e-62 6.405888835312872137e-62 6.396622868886677545e-62 6.387370305461380702e-62 6.378131125928300571e-62 6.368905310834469206e-62 6.359692840662914295e-62 6.350493695833286996e-62 6.341307857717547053e-62 6.332135306698201464e-62 6.322976023555781832e-62 6.313829989190496325e-62 6.304697184529785544e-62 6.295577590253439320e-62 6.286471187161471586e-62 6.277377956447455976e-62 6.268297878966117414e-62 6.259230935418103806e-62 6.250177107624588655e-62 6.241136375703899428e-62 6.232108721076712493e-62 6.223094124736217330e-62 6.214092567613057692e-62 6.205104031478915792e-62 6.196128496866775232e-62 6.187165945420944235e-62 6.178216358180991098e-62 6.169279716394243558e-62 6.160356000886928048e-62 6.151445193678651313e-62 6.142547276096832921e-62 6.133662228424822839e-62 6.124790033474712003e-62 6.115930672030293032e-62 6.107084125172472105e-62 6.098250374809734388e-62 6.089429402254519149e-62 6.080621189377972216e-62 6.071825716927292171e-62 6.063042967269098240e-62 6.054272921822952725e-62 6.045515561948087382e-62 6.036770869383231394e-62 6.028038825980863511e-62 6.019319413443769183e-62 6.010612613063869005e-62 6.001918407210118287e-62 5.993236777314974858e-62 5.984567705100531185e-62 5.975911172489619704e-62 5.967267161691347153e-62 5.958635654245370395e-62 5.950016631979309832e-62 5.941410077093281088e-62 5.932815971553021947e-62 5.924234296919309884e-62 5.915665035642310420e-62 5.907108169851864951e-62 5.898563681359950322e-62 5.890031552177393752e-62 5.881511764769351425e-62 5.873004300770222425e-62 5.864509143123296637e-62 5.856026273174087260e-62 5.847555673745378538e-62 5.839097326832512174e-62 5.830651214627673199e-62 5.822217319772799304e-62 5.813795624425852110e-62 5.805386110940294507e-62 5.796988761442046202e-62 5.788603558757860622e-62 5.780230485064595325e-62 5.771869522817961980e-62 5.763520654582918061e-62 5.755183863033026908e-62 5.746859130364421144e-62 5.738546439217971893e-62 5.730245772259298081e-62 5.721957112261996653e-62 5.713680441109263482e-62 5.705415742457268758e-62 5.697162998572119659e-62 5.688922192161298077e-62 5.680693305543976129e-62 5.672476322387421480e-62 5.664271224812489591e-62 5.656077995544910577e-62 5.647896617746697380e-62 5.639727074192445285e-62 5.631569347682024185e-62 5.623423421204202892e-62 5.615289277935427112e-62 5.607166900341058568e-62 5.599056271402812050e-62 5.590957374615171396e-62 5.582870192600722372e-62 5.574794708495692046e-62 5.566730905622363377e-62 5.558678767002529883e-62 5.550638275602123754e-62 5.542609414331764246e-62 5.534592166933227569e-62 5.526586516284712803e-62 5.518592445451196038e-62 5.510609938244556716e-62 5.502638977536762922e-62 5.494679546626090794e-62 5.486731628755132180e-62 5.478795207509972170e-62 5.470870266180953716e-62 5.462956787923943399e-62 5.455054756714020932e-62 5.447164155516569243e-62 5.439284967956892855e-62 5.431417177288106787e-62 5.423560767498886673e-62 5.415715721732116340e-62 5.407882023628941636e-62 5.400059657168155824e-62 5.392248605329943363e-62 5.384448852062081581e-62 5.376660380943002197e-62 5.368883175809614861e-62 5.361117220287483181e-62 5.353362497870395786e-62 5.345618992854918944e-62 5.337886688548178274e-62 5.330165568903980877e-62 5.322455617666316414e-62 5.314756818680361939e-62 5.307069156123578002e-62 5.299392613192457448e-62 5.291727174496897968e-62 5.284072823820223514e-62 5.276429544739536697e-62 5.268797321624072826e-62 5.261176138481210883e-62 5.253565979341465282e-62 5.245966827876755130e-62 5.238378668699016253e-62 5.230801485602826394e-62 5.223235262635550859e-62 5.215679984171553979e-62 5.208135634303659260e-62 5.200602197148027726e-62 5.193079656919696762e-62 5.185567998158375324e-62 5.178067204671316460e-62 5.170577260968336760e-62 5.163098151280146523e-62 5.155629860010639730e-62 5.148172371585945041e-62 5.140725670080358791e-62 5.133289740414199702e-62 5.125864566333873835e-62 5.118450132878427368e-62 5.111046424064702797e-62 5.103653424900082651e-62 5.096271119373132884e-62 5.088899492238365555e-62 5.081538528049541533e-62 5.074188211235089289e-62 5.066848526688993277e-62 5.059519458515926692e-62 5.052200992095620471e-62 5.044893111724564883e-62 5.037595801650258078e-62 5.030309047389301311e-62 5.023032833160043935e-62 5.015767143862786898e-62 5.008511964200389337e-62 5.001267279043710638e-62
1.024204132447741157e-61 1.022722642058177684e-61 1.021243294584526640e-61 1.019766086942029278e-61 1.018291016139232882e-61 1.016818078996205190e-61 1.015347272367550155e-61 1.013878593304477904e-61 1.012412038640899784e-61 1.010947605318669055e-61 1.009485290328068540e-61 1.008025090502124205e-61 1.006567002869305764e-61 1.005111024330362981e-61 1.003657151863745227e-61 1.002205382364641436e-61 1.000755712834925378e-61 9.993081402660759847e-62 9.978626615811935960e-62 9.964192737515181102e-62 9.949779737237129623e-62 9.935387585935624825e-62 9.921016252151211887e-62 9.906665706349679772e-62 9.892335918605170652e-62 9.878026859178241853e-62 9.863738496792316332e-62 9.849470802658259859e-62 9.835223746449261481e-62 9.820997298598819526e-62 9.806791428725709999e-62 9.792606107777647705e-62 9.778441305602911371e-62 9.764296992947789263e-62 9.750173139038313800e-62 9.736069715983526099e-62 9.721986692954485915e-62 9.707924040443797514e-62 9.693881729974197710e-62 9.679859731274141849e-62 9.665858015666769344e-62 9.651876552687753805e-62 9.637915314025463396e-62 9.623974269864439888e-62 9.610053391413697453e-62 9.596152649503143194e-62 9.582272014447123948e-62 9.568411457719254004e-62 9.554570949719694351e-62 9.540750462143364551e-62 9.526949966029932149e-62 9.513169431768787106e-62 9.499408830762797945e-62 9.485668134593030162e-62 9.471947314190684479e-62 9.458246340117304242e-62 9.444565185041547379e-62 9.430903819332598673e-62 9.417262214365949991e-62 9.403640342242702356e-62 9.390038173598269444e-62 9.376455680751445907e-62 9.362892834286287852e-62 9.349349606466154365e-62 9.335825968640592536e-62 9.322321892337425884e-62 9.308837350209948594e-62 9.295372312917909337e-62 9.281926752789037745e-62 9.268500640705121838e-62 9.255093950153080971e-62 9.241706652095955693e-62 9.228338717945751591e-62 9.214990121169595650e-62 9.201660832320745675e-62 9.188350824675616139e-62 9.175060069274301214e-62 9.161788538803282154e-62 9.148536205586847941e-62 9.135303041589931400e-62 9.122089019217407328e-62 9.108894110780935174e-62 9.095718288764590309e-62 9.082561525030828783e-62 9.069423792144990587e-62 9.056305063370459944e-62 9.043205310295114559e-62 9.030124506260204080e-62 9.017062622936313071e-62 9.004019633480277889e-62 8.990995510692977932e-62 8.977990227283421035e-62 8.965003755739175038e-62 8.952036068719007728e-62 8.939087139181964750e-62 8.926156940515317891e-62 8.913245444975232307e-62 8.900352625896962416e-62 8.887478456005997317e-62 8.874622908455825990e-62 8.861785955793434837e-62 8.848967572024220777e-62 8.836167730030020377e-62 8.823386402476220186e-62 8.810623562967455719e-62 8.797879184888818994e-62 8.785153241279827472e-62 8.772445705603068968e-62 8.759756551104024926e-62 8.747085751449290188e-62 8.734433279834033609e-62 8.721799109620221275e-62 8.709183215096048350e-62 8.696585568938425488e-62 8.684006144752214469e-62 8.671444917063761441e-62 8.658901859046380572e-62 8.646376943788566760e-62 8.633870146305058760e-62 8.621381439132125491e-62 8.608910797356740345e-62 8.596458193719662898e-62 8.584023602380032864e-62 8.571606997907477415e-62 8.559208353535618808e-62 8.546827644032520914e-62 8.534464843081762464e-62 8.522119924530625944e-62 8.509792862389132077e-62 8.497483631571016167e-62 8.485192205911796515e-62 8.472918559163151495e-62 8.460662666717410420e-62 8.448424502153580111e-62 8.436204039583135541e-62 8.424001253523826418e-62 8.411816119019357204e-62 8.399648610046796452e-62 8.387498701233250219e-62 8.375366366998240428e-62 8.363251582163924456e-62 8.351154321101722494e-62 8.339074558342530226e-62 8.327012269060480713e-62 8.314967427616521928e-62 8.302940008531091156e-62 8.290929987207069379e-62 8.278937338477925627e-62 8.266962036732338612e-62 8.255004056998747505e-62 8.243063374101289091e-62 8.231139963859268311e-62 8.219233800209635265e-62 8.207344858445479325e-62 8.195473114252360546e-62 8.183618542276643638e-62 8.171781117679089418e-62 8.159960815537651665e-62 8.148157611796844220e-62 8.136371480656890780e-62 8.124602398369849511e-62 8.112850339919389686e-62 8.101115280326901633e-62 8.089397195475458037e-62 8.077696060928337713e-62 8.066011851579397234e-62 8.054344543064597413e-62 8.042694111522772791e-62 8.031060531839199044e-62 8.019443780455596691e-62 8.007843831979749223e-62 7.996260663038857878e-62 7.984694249011770910e-62 7.973144564966393052e-62 7.961611588210992795e-62 7.950095293419268321e-62 7.938595656692844377e-62 7.927112653820844223e-62 7.915646261203849125e-62 7.904196454469430719e-62 7.892763209856186839e-62 7.881346502947959019e-62 7.869946310511122080e-62 7.858562608427821181e-62 7.847195372045123476e-62 7.835844578459623237e-62 7.824510204000050533e-62 7.813192224005613607e-62 7.801890615331061192e-62 7.790605354748787520e-62 7.779336417930774860e-62 7.768083781152352397e-62 7.756847421513790821e-62 7.745627314792980326e-62 7.734423437931295599e-62 7.723235767114791162e-62 7.712064279463236442e-62 7.700908951118495551e-62 7.689769758482689584e-62 7.678646678775219991e-62 7.667539688241816355e-62 7.656448763721589037e-62 7.645373882642936493e-62 7.634315020575416898e-62 7.623272155458828931e-62 7.612245263376929105e-62 7.601234321668170183e-62 7.590239306818247189e-62 7.579260196341419370e-62 7.568296967011144068e-62 7.557349595745406635e-62 7.546418059825504806e-62 7.535502335687394457e-62 7.524602401555932599e-62 7.513718233823955584e-62 7.502849809686039332e-62 7.491997106914860569e-62 7.481160102333092437e-62 7.470338773451075088e-62 7.459533096833780983e-62 7.448743050926067483e-62 7.437968612575713935e-62 7.427209759206742849e-62 7.416466468383753697e-62 7.405738717703331729e-62 7.395026484578776790e-62 7.384329745919248067e-62 7.373648480601515844e-62 7.362982665491549832e-62 7.352332278026994368e-62 7.341697296213236378e-62 7.331077697979405418e-62 7.320473460966048290e-62 7.309884562314656977e-62 7.299310980583403145e-62 7.288752693403655939e-62 7.278209678545977952e-62 7.267681914130818372e-62 7.257169377675725099e-62 7.246672047787129569e-62 7.236189901836057584e-62 7.225722918175342945e-62 7.215271075082765970e-62 7.204834349923020418e-62 7.194412721876499219e-62 7.184006168371968729e-62 7.173614667813529641e-62 7.163238198114421823e-62 7.152876738157982504e-62 7.142530265919945460e-62 7.132198759305468834e-62 7.121882197393481800e-62 7.111580557944693083e-62 7.101293819994723198e-62 7.091021961471762086e-62 7.080764960956395724e-62 7.070522797265527614e-62 7.060295448115210580e-62 7.050082893309146969e-62 7.039885110728470831e-62 7.029702078800907096e-62 7.019533776497012249e-62 7.009380182714426741e-62 6.999241276074876665e-62 6.989117034722928575e-62 6.979007437954548061e-62 6.968912464687800111e-62 6.958832093769539324e-62 6.948766303976102528e-62 6.938715073913021273e-62 6.928678383125519972e-62 6.918656209776267452e-62 6.908648533772097457e-62 6.898655333739925554e-62 6.888676588239085838e-62 6.878712277163381800e-62 6.868762379332730968e-62 6.858826873898419789e-62 6.848905739942227374e-62 6.838998956875185031e-62 6.829106503441604948e-62 6.819228359311799531e-62 6.809364504084673890e-62 6.799514916694730235e-62 6.789679576503874757e-62 6.779858462805205838e-62 6.770051555513303003e-62 6.760258833487543295e-62 6.750480276504533945e-62 6.740715864172678124e-62 6.730965576031498646e-62 6.721229391454502667e-62 6.711507289748218675e-62 6.701799251323142630e-62 6.692105255348740115e-62 6.682425281318450486e-62 6.672759309435929148e-62 6.663107319155670655e-62 6.653469290350434749e-62 6.643845202631632577e-62 6.634235036220253196e-62 6.624638770689408936e-62 6.615056385931800453e-62 6.605487861965339028e-62 6.595933178932402996e-62 6.586392316332350079e-62 6.576865254557628371e-62 6.567351973358409793e-62 6.557852453183410532e-62 6.548366673650347001e-62 6.538894615455175937e-62 6.529436257989076689e-62 6.519991582384150643e-62 6.510560567995590234e-62 6.501143195442005809e-62 6.491739445273933120e-62 6.482349297031173930e-62 6.472972731793509125e-62 6.463609729630177328e-62 6.454260270922240709e-62 6.444924335797780424e-62 6.435601905070397690e-62 6.426292959112243016e-62 6.416997478230886502e-62 6.407715443229418287e-62 6.398446834658149579e-62 6.389191632723629763e-62 6.379949818498215211e-62 6.370721372337978476e-62 6.361506274906330032e-62 6.352304506987088403e-62 6.343116049206857578e-62 6.333940882681521945e-62 6.324778987816378490e-62 6.315630344954764007e-62 6.306494936030560044e-62 6.297372741257857952e-62 6.288263741339690945e-62 6.279167917464665996e-62 6.270085250756169735e-62 6.261015721817443586e-62 6.251959311736257752e-62 6.242916001627343697e-62 6.233885772632355270e-62 6.224868605557498540e-62 6.215864481871088705e-62 6.206873382434426271e-62 6.197895288588626901e-62 6.188930181160649374e-62 6.179978041456402288e-62 6.171038851257446767e-62 6.162112591203639863e-62 6.153199242950517682e-62 6.144298787731540867e-62 6.135411206986267905e-62 6.126536481556646509e-62 6.117674593650018186e-62 6.108825524251449234e-62 6.099989254552977777e-62 6.091165766661380594e-62 6.082355041910036205e-62 6.073557061571710184e-62 6.064771807300425581e-62 6.055999260864485275e-62 6.047239403793801940e-62 6.038492217381772954e-62 6.029757683915570839e-62 6.021035784916763139e-62 6.012326501759425456e-62 6.003629816457647752e-62 5.994945710963158218e-62 5.986274166730365232e-62 5.977615165676945436e-62 5.968968689746350979e-62 5.960334720907778428e-62 5.951713240896301279e-62 5.943104231387683271e-62 5.934507675207978300e-62 5.925923553565895749e-62 5.917351848647895732e-62 5.908792542579470470e-62 5.900245617597456576e-62 5.891711055277753455e-62 5.883188838166871728e-62 5.874678948407270229e-62 5.866181367996512750e-62 5.857696079129425263e-62 5.849223064111704006e-62 5.840762305104284900e-62 5.832313784888374214e-62 5.823877484742401985e-62 5.815453387753439938e-62 5.807041476100176500e-62 5.798641731903430860e-62 5.790254138069319377e-62 5.781878676769248459e-62 5.773515330453562398e-62 5.765164081346304187e-62 5.756824912284736603e-62 5.748497805627577644e-62 5.740182744010385460e-62 5.731879710010063076e-62 5.723588686312003653e-62 5.715309655376779297e-62 5.707042599857151408e-62 5.698787502430976363e-62 5.690544346132396540e-62 5.682313112778331263e-62 5.674093786280172820e-62 5.665886349001027246e-62 5.657690783578291332e-62 5.649507072428561813e-62 5.641335199391220011e-62 5.633175146685275762e-62 5.625026897295002749e-62 5.616890434147194046e-62 5.608765740356576981e-62 5.600652798735592255e-62 5.592551592203634338e-62 5.584462104355273355e-62 5.576384317589134172e-62 5.568318214980359378e-62 5.560263780033134683e-62 5.552220995708182941e-62 5.544189844910895936e-62 5.536170311297500855e-62 5.528162377821759799e-62 5.520166027704127526e-62 5.512181243788267079e-62 5.504208010145848532e-62 5.496246309428449268e-62 5.488296125034307346e-62 5.480357440704325860e-62 5.472430239484484781e-62 5.464514504844269697e-62 5.456610219959115019e-62 5.448717368743429649e-62 5.440835934261902090e-62 5.432965900000740143e-62 5.425107249864764835e-62 5.417259967070880594e-62 5.409424035333946419e-62 5.401599437684258138e-62 5.393786158670358645e-62 5.385984181056390006e-62 5.378193489122171230e-62 5.370414066307892294e-62 5.362645896078714657e-62 5.354888962548125585e-62 5.347143248994977608e-62 5.339408739812116457e-62 5.331685418403645877e-62 5.323973268431780511e-62 5.316272274124575040e-62 5.308582419190465742e-62 5.300903687593544534e-62 5.293236062935628150e-62 5.285579529381998415e-62 5.277934070966232992e-62 5.270299671361204419e-62 5.262676314953974785e-62 5.255063985540755796e-62 5.247462667171278205e-62 5.239872343918340836e-62 5.232293000106204422e-62 5.224724619700663066e-62 5.217167186615443412e-62 5.209620685470822098e-62 5.202085100074642023e-62 5.194560414788948021e-62 5.187046613771303773e-62 5.179543681428633691e-62 5.172051601813448510e-62 5.164570359378075572e-62 5.157099938671727938e-62 5.149640323440681260e-62 5.142191498654584921e-62 5.134753448330863495e-62 5.127326156959358111e-62 5.119909609126524444e-62 5.112503789068482491e-62 5.105108681639439379e-62 5.097724270897897616e-62 5.090350541816243388e-62 5.082987478277164948e-62 5.075635065740616329e-62 5.068293288134915845e-62 5.060962130224625467e-62 5.053641576722165432e-62 5.046331612214880940e-62 5.039032221606042055e-62 5.031743389160806163e-62 5.024465100046387957e-62 5.017197338938481504e-62 5.009940090170744553e-62 5.002693339193377450e-62 4.995457070529765066e-62 4.988231268944707728e-62 4.981015919297843851e-62 4.973811006398331713e-62
1.018581387047142059e-61 1.017108029858928895e-61 1.015636803807480646e-61 1.014167705869311836e-61 1.012700733025054198e-61 1.011235882112297048e-61 1.009773150032364282e-61 1.008312533823245090e-61 1.006854030350947483e-61 1.005397636588744141e-61 1.003943349514158812e-61 1.002491166021431486e-61 1.001041083096950420e-61 9.995930977022444865e-62 9.981472068032378482e-62 9.967034073412355433e-62 9.952616963055419164e-62 9.938220707186768800e-62 9.923845275639561138e-62 9.909490637425378718e-62 9.895156762756329959e-62 9.880843622461503255e-62 9.866551185541931200e-62 9.852279422481547347e-62 9.838028303375624846e-62 9.823797798934515136e-62 9.809587877767232666e-62 9.795398511528392001e-62 9.781229669772384780e-62 9.767081323522031111e-62 9.752953441852043925e-62 9.738845996580073102e-62 9.724758957577184766e-62 9.710692295325721687e-62 9.696645979786310511e-62 9.682619982515381202e-62 9.668614273417862300e-62 9.654628823147743880e-62 9.640663603243193862e-62 9.626718583598858566e-62 9.612793735555422645e-62 9.598889029095778515e-62 9.585004435923639085e-62 9.571139926108667811e-62 9.557295471714531380e-62 9.543471042896216865e-62 9.529666611103570091e-62 9.515882146995084032e-62 9.502117621688322745e-62 9.488373006894918506e-62 9.474648273675659472e-62 9.460943392858438791e-62 9.447258335727571117e-62 9.433593074432566653e-62 9.419947579377629843e-62 9.406321821972097699e-62 9.392715774623444506e-62 9.379129408137081735e-62 9.365562693908770343e-62 9.352015604056681604e-62 9.338488109921603804e-62 9.324980183158346686e-62 9.311491794920725487e-62 9.298022917624372216e-62 9.284573522911225269e-62 9.271143582329923056e-62 9.257733068549168414e-62 9.244341952659418197e-62 9.230970206871074504e-62 9.217617802628772094e-62 9.204284713028052981e-62 9.190970909326283521e-62 9.177676363627200495e-62 9.164401048875057516e-62 9.151144936318596860e-62 9.137907998847888819e-62 9.124690207928735403e-62 9.111491536662741216e-62 9.098311956995390433e-62 9.085151441443296053e-62 9.072009962430233994e-62 9.058887492419874086e-62 9.045784003784081964e-62 9.032699469066700469e-62 9.019633860720035961e-62 9.006587152023190490e-62 8.993559314982336315e-62 8.980550322823140056e-62 8.967560147763764272e-62 8.954588762716361938e-62 8.941636140631694884e-62 8.928702254758949472e-62 8.915787077086899535e-62 8.902890580944318908e-62 8.890012739438140713e-62 8.877153526101175176e-62 8.864312913083353945e-62 8.851490873866877572e-62 8.838687381456147130e-62 8.825902409280471821e-62 8.813135929908742828e-62 8.800387917232943446e-62 8.787658344796404484e-62 8.774947185158080350e-62 8.762254412067514557e-62 8.749579999055914459e-62 8.736923919310804176e-62 8.724286146186551691e-62 8.711666653710475972e-62 8.699065415185735978e-62 8.686482404081610828e-62 8.673917593906306304e-62 8.661370958837094621e-62 8.648842472079552945e-62 8.636332107382900069e-62 8.623839839287291374e-62 8.611365641113320519e-62 8.598909486097217885e-62 8.586471349265938948e-62 8.574051203681380936e-62 8.561649023943255977e-62 8.549264783441233260e-62 8.536898456599999138e-62 8.524550017755568967e-62 8.512219440412918604e-62 8.499906699354938494e-62 8.487611768657244510e-62 8.475334622063492028e-62 8.463075233973227514e-62 8.450833579068445055e-62 8.438609631943358993e-62 8.426403366124286885e-62 8.414214756771324563e-62 8.402043778099185488e-62 8.389890404483027586e-62 8.377754610091783988e-62 8.365636370472435334e-62 8.353535659744382873e-62 8.341452452187962856e-62 8.329386723091965572e-62 8.317338446688991713e-62 8.305307597976169158e-62 8.293294151744375079e-62 8.281298082820948552e-62 8.269319366069643923e-62 8.257357976030094948e-62 8.245413888240219471e-62 8.233487077551836652e-62 8.221577518614383949e-62 8.209685186593392800e-62 8.197810056689802932e-62 8.185952104497264840e-62 8.174111304096332560e-62 8.162287631272576431e-62 8.150481061369595324e-62 8.138691569410833248e-62 8.126919130811681542e-62 8.115163720550214968e-62 8.103425314939362864e-62 8.091703888320476010e-62 8.079999416605155810e-62 8.068311875502986411e-62 8.056641239936990454e-62 8.044987485805571550e-62 8.033350588923569742e-62 8.021730524672864579e-62 8.010127268122276228e-62 7.998540796008735358e-62 7.986971083122429975e-62 7.975418106150981680e-62 7.963881839957459105e-62 7.952362261065432921e-62 7.940859345336083122e-62 7.929373067627022011e-62 7.917903405371597434e-62 7.906450333498100095e-62 7.895013828354238910e-62 7.883593865632111513e-62 7.872190421976910006e-62 7.860803473493179890e-62 7.849432995748903237e-62 7.838078965262361926e-62 7.826741358356523979e-62 7.815420151274389946e-62 7.804115319725493887e-62 7.792826840364182243e-62 7.781554690330031496e-62 7.770298844643867172e-62 7.759059280287997667e-62 7.747835974275568548e-62 7.736628902524704114e-62 7.725438041215646745e-62 7.714263367799388843e-62 7.703104858186311520e-62 7.691962489108091199e-62 7.680836237329575827e-62 7.669726079537127850e-62 7.658631992450833955e-62 7.647553952601881046e-62 7.636491937223124864e-62 7.625445922690701998e-62 7.614415885970873982e-62 7.603401804505312202e-62 7.592403654219143163e-62 7.581421412841820432e-62 7.570455057030013581e-62 7.559504563915613765e-62 7.548569910553266795e-62 7.537651073921123616e-62 7.526748031250166782e-62 7.515860759803840478e-62 7.504989236550365783e-62 7.494133438383176284e-62 7.483293343319506867e-62 7.472468928535174829e-62 7.461660170696574934e-62 7.450867047699355175e-62 7.440089536819173869e-62 7.429327615581254741e-62 7.418581260895133516e-62 7.407850450891872369e-62 7.397135163085502552e-62 7.386435374270176257e-62 7.375751062779517860e-62 7.365082206010641296e-62 7.354428781608333727e-62 7.343790766822250830e-62 7.333168140217353161e-62 7.322560879107211818e-62 7.311968960946470576e-62 7.301392363861264675e-62 7.290831065795793787e-62 7.280285044513817793e-62 7.269754277705931820e-62 7.259238743518465063e-62 7.248738420022954043e-62 7.238253285006209439e-62 7.227783316603619285e-62 7.217328492771692382e-62 7.206888791813900785e-62 7.196464191540576641e-62 7.186054670318369898e-62 7.175660206544314268e-62 7.165280777707367614e-62 7.154916362893985531e-62 7.144566940073619847e-62 7.134232487456577356e-62 7.123912983285135950e-62 7.113608406351075653e-62 7.103318735061591495e-62 7.093043947132592076e-62 7.082784021758308056e-62 7.072538937027823788e-62 7.062308671885866703e-62 7.052093204484864859e-62 7.041892513625466763e-62 7.031706578138099292e-62 7.021535375963328881e-62 7.011378886709202024e-62 7.001237088582932906e-62 6.991109960232410026e-62 6.980997480641608751e-62 6.970899628621140270e-62 6.960816383316148125e-62 6.950747722788008385e-62 6.940693626446351572e-62 6.930654073324978562e-62 6.920629042286164694e-62 6.910618512323762521e-62 6.900622462361590447e-62 6.890640871755479118e-62 6.880673718888545927e-62 6.870720983677950022e-62 6.860782644968215964e-62 6.850858681536076979e-62 6.840949073186186259e-62 6.831053799053979428e-62 6.821172838305506464e-62 6.811306170137386794e-62 6.801453773974707089e-62 6.791615628777732978e-62 6.781791714525759978e-62 6.771982010436108410e-62 6.762186496150630187e-62 6.752405150750206257e-62 6.742637953642040379e-62 6.732884885047359970e-62 6.723145923843339488e-62 6.713421049917611022e-62 6.703710242892973370e-62 6.694013482421698845e-62 6.684330748282764446e-62 6.674662019798327533e-62 6.665007277195040764e-62 6.655366499951267336e-62 6.645739667769733788e-62 6.636126760865784577e-62 6.626527758806708664e-62 6.616942641575761251e-62 6.607371388800136081e-62 6.597813981001843640e-62 6.588270397673978702e-62 6.578740619011510412e-62 6.569224625046039243e-62 6.559722395933503177e-62 6.550233911476856670e-62 6.540759152080596999e-62 6.531298097606066027e-62 6.521850728514408251e-62 6.512417024725185403e-62 6.502996966756025975e-62 6.493590534584541434e-62 6.484197709067755650e-62 6.474818469674608036e-62 6.465452797412774377e-62 6.456100672562953339e-62 6.446762075059525453e-62 6.437436985898380728e-62 6.428125385352123148e-62 6.418827254002927065e-62 6.409542572087560683e-62 6.400271320152008490e-62 6.391013479142395438e-62 6.381769029287860537e-62 6.372537951404147637e-62 6.363320226241347573e-62 6.354115834392065462e-62 6.344924756477380735e-62 6.335746973331200831e-62 6.326582465538562131e-62 6.317431213989178997e-62 6.308293199783602300e-62 6.299168403681866557e-62 6.290056806472236196e-62 6.280958388605562264e-62 6.271873131840707444e-62 6.262801016683450542e-62 6.253742024033765689e-62 6.244696135001392640e-62 6.235663330904484350e-62 6.226643592633985836e-62 6.217636901018792969e-62 6.208643237639492868e-62 6.199662583379615535e-62 6.190694919331695749e-62 6.181740227245698350e-62 6.172798487638080766e-62 6.163869682402044736e-62 6.154953792379461977e-62 6.146050798710170153e-62 6.137160683455138079e-62 6.128283427449686934e-62 6.119419012271575494e-62 6.110567419435518502e-62 6.101728630482582242e-62 6.092902626093514296e-62 6.084089388751178447e-62 6.075288899633435685e-62 6.066501139858635161e-62 6.057726091808472261e-62 6.048963736830395552e-62 6.040214056299982468e-62 6.031477031971971919e-62 6.022752645627115823e-62 6.014040879072136780e-62 6.005341713615360651e-62 5.996655131466674022e-62 5.987981114511257359e-62 5.979319644399083350e-62 5.970670702720540301e-62 5.962034271787849079e-62 5.953410333243864440e-62 5.944798868932138791e-62 5.936199861154780044e-62 5.927613291547929200e-62 5.919039142464856560e-62 5.910477395422774447e-62 5.901928033084368083e-62 5.893391037105668427e-62 5.884866389770555895e-62 5.876354073216768793e-62 5.867854069778661622e-62 5.859366361133278005e-62 5.850890929837806318e-62 5.842427758303148606e-62 5.833976828455539090e-62 5.825538122672691020e-62 5.817111623526743707e-62 5.808697313022248466e-62 5.800295174035306652e-62 5.791905188116062027e-62 5.783527338359908991e-62 5.775161606959332252e-62 5.766807976301508571e-62 5.758466429134640239e-62 5.750136948230793870e-62 5.741819515466768527e-62 5.733514113666250068e-62 5.725220725510056213e-62 5.716939333703695490e-62 5.708669920645042284e-62 5.700412469173276600e-62 5.692166962317340978e-62 5.683933382136748174e-62 5.675711711710939858e-62 5.667501933565090993e-62 5.659304031074262756e-62 5.651117986237073412e-62 5.642943782724062872e-62 5.634781403241865818e-62 5.626630830359085052e-62 5.618492046834484033e-62 5.610365036268886337e-62 5.602249781142673712e-62 5.594146264533534686e-62 5.586054469543279471e-62 5.577974379378980218e-62 5.569905976622872783e-62 5.561849244855725832e-62 5.553804167195038902e-62 5.545770726379223459e-62 5.537748905656924442e-62 5.529738688461599935e-62 5.521740058088919678e-62 5.513752997136249232e-62 5.505777489751183548e-62 5.497813518820362698e-62 5.489861067576471982e-62 5.481920119117251384e-62 5.473990657442157066e-62 5.466072665616518336e-62 5.458166126572692551e-62 5.450271024697405851e-62 5.442387342732696029e-62 5.434515064397651216e-62 5.426654173039039634e-62 5.418804652501526215e-62 5.410966486179334928e-62 5.403139657334143554e-62 5.395324150195355743e-62 5.387519947914873210e-62 5.379727034297299428e-62 5.371945392857292326e-62 5.364175007602388930e-62 5.356415862016283051e-62 5.348667939763238695e-62 5.340931225075535356e-62 5.333205701119716508e-62 5.325491352096822034e-62 5.317788161609990000e-62 5.310096113827987791e-62 5.302415192478179576e-62 5.294745381080992247e-62 5.287086664336421186e-62 5.279439025657211491e-62 5.271802449249583879e-62 5.264176918881985639e-62 5.256562418729802049e-62 5.248958932990647022e-62 5.241366445121609788e-62 5.233784939977265376e-62 5.226214401290018024e-62 5.218654813121222768e-62 5.211106159783110159e-62 5.203568425609947659e-62 5.196041594655554383e-62 5.188525650846467004e-62 5.181020579038509339e-62 5.173526363052805849e-62 5.166042987186899555e-62 5.158570436061317542e-62 5.151108693717858243e-62 5.143657744746657204e-62 5.136217573310714574e-62 5.128788164268616880e-62 5.121369501455544813e-62 5.113961569700087169e-62 5.106564353256678667e-62 5.099177836774509837e-62 5.091802004924333996e-62 5.084436841732538333e-62 5.077082332506848866e-62 5.069738461171318505e-62 5.062405212854823400e-62 5.055082571675654254e-62 5.047770522879132133e-62 5.040469050702489371e-62 5.033178139847124729e-62 5.025897775329114767e-62 5.018627941527659205e-62 5.011368623575391790e-62 5.004119805823853184e-62 4.996881473667116410e-62 4.989653611646544251e-62 4.982436204182117278e-62 4.975229237021424893e-62 4.968032694483010685e-62 4.960846561488132129e-62 4.953670823268200877e-62 4.946505464354927067e-62
1.012989509746605086e-61 1.011524241109502528e-61 1.010061091894764629e-61 1.008600059124922353e-61 1.007141139782464037e-61 1.005684330722340115e-61 1.004229628848272227e-61 1.002777031258351597e-61 1.001326534791950738e-61 9.998781364390222269e-62 9.984318332228043312e-62 9.969876220109998245e-62 9.955454998646157045e-62 9.941054637328034862e-62 9.926675105836990562e-62 9.912316374187350487e-62 9.897978411860045300e-62 9.883661189676473750e-62 9.869364677347537305e-62 9.855088844342386896e-62 9.840833660749637187e-62 9.826599097845132478e-62 9.812385124799464445e-62 9.798191711830241019e-62 9.784018829625276692e-62 9.769866448486420041e-62 9.755734538190620223e-62 9.741623069978603424e-62 9.727532013288796541e-62 9.713461339728380844e-62 9.699411018258937183e-62 9.685381021135330107e-62 9.671371318111945923e-62 9.657381880114852013e-62 9.643412676988316470e-62 9.629463680865912310e-62 9.615534861396799308e-62 9.601626189396676338e-62 9.587737636839616749e-62 9.573869173366978398e-62 9.560020771034456788e-62 9.546192399571781963e-62 9.532384031116041860e-62 9.518595635900610601e-62 9.504827185588669828e-62 9.491078651467644944e-62 9.477350004176324639e-62 9.463641215086943219e-62 9.449952255199991114e-62 9.436283096657634327e-62 9.422633710404698001e-62 9.409004067703664556e-62 9.395394139859178188e-62 9.381803898900597540e-62 9.368233316077417962e-62 9.354682362273519155e-62 9.341151010456831652e-62 9.327639231456716748e-62 9.314146996690430821e-62 9.300674278700488470e-62 9.287221048714127911e-62 9.273787278812265714e-62 9.260372940036978914e-62 9.246978005494162564e-62 9.233602446039121010e-62 9.220246234318227412e-62 9.206909342612569182e-62 9.193591742038110959e-62 9.180293405493341571e-62 9.167014304178309124e-62 9.153754411603245444e-62 9.140513699182731427e-62 9.127292138641799226e-62 9.114089703870725631e-62 9.100906365612190712e-62 9.087742097302977412e-62 9.074596870300857909e-62 9.061470658119402773e-62 9.048363432594195752e-62 9.035275166656265031e-62 9.022205832748916357e-62 9.009155403224787798e-62 8.996123851263112751e-62 8.983111148903155544e-62 8.970117269141185433e-62 8.957142185272089657e-62 8.944185869455724547e-62 8.931248295064742586e-62 8.918329434340052273e-62 8.905429260472663286e-62 8.892547746691242449e-62 8.879684866262056737e-62 8.866840591327657328e-62 8.854014895363240841e-62 8.841207751494722696e-62 8.828419133529244469e-62 8.815649013897915909e-62 8.802897365971762444e-62 8.790164163159772371e-62 8.777449378908838132e-62 8.764752985810904297e-62 8.752074958283914101e-62 8.739415269506634585e-62 8.726773892443757721e-62 8.714150801242553673e-62 8.701545969198566029e-62 8.688959369520626061e-62 8.676390976341771531e-62 8.663840763199887277e-62 8.651308703797574055e-62 8.638794771875473217e-62 8.626298940835624399e-62 8.613821185373649561e-62 8.601361478465636961e-62 8.588919794005466398e-62 8.576496106923212810e-62 8.564090390436146733e-62 8.551702618052416951e-62 8.539332765060340493e-62 8.526980804545073515e-62 8.514646711245778087e-62 8.502330458698209368e-62 8.490032021343913242e-62 8.477751373783700355e-62 8.465488489668003824e-62 8.453243344041160278e-62 8.441015911120575936e-62 8.428806164548204922e-62 8.416614078864672426e-62 8.404439629258397459e-62 8.392282789973515180e-62 8.380143534804684448e-62 8.368021839535986727e-62 8.355917678035721485e-62 8.343831024820258368e-62 8.331761854443351268e-62 8.319710142343564093e-62 8.307675862903796229e-62 8.295658990545583557e-62 8.283659500813920397e-62 8.271677368082342804e-62 8.259712567244330813e-62 8.247765073229677824e-62 8.235834861244135639e-62 8.223921906049584629e-62 8.212026182564955622e-62 8.200147666342611315e-62 8.188286332134120498e-62 8.176442155324045113e-62 8.164615110856269333e-62 8.152805173830599896e-62 8.141012320212643623e-62 8.129236524225245788e-62 8.117477761905037063e-62 8.105736008612508660e-62 8.094011239508226222e-62 8.082303430024931148e-62 8.070612555630907856e-62 8.058938592299012363e-62 8.047281514629580329e-62 8.035641299134701500e-62 8.024017921071960235e-62 8.012411355852852960e-62 8.000821579507593671e-62 7.989248567518251836e-62 7.977692295867737701e-62 7.966152739645313245e-62 7.954629875947128839e-62 7.943123679469592336e-62 7.931634126912887507e-62 7.920161193278584675e-62 7.908704855449807568e-62 7.897265089189919484e-62 7.885841869609816002e-62 7.874435174381315491e-62 7.863044978341008092e-62 7.851671258309723122e-62 7.840313989655643168e-62 7.828973149494947605e-62 7.817648713835346300e-62 7.806340658493042083e-62 7.795048960228659815e-62 7.783773595381394875e-62 7.772514540324665189e-62 7.761271770788418989e-62 7.750045263893989715e-62 7.738834996229788390e-62 7.727640943855346211e-62 7.716463083428222276e-62 7.705301391751378534e-62 7.694155845548395001e-62 7.683026420569810262e-62 7.671913094726300972e-62 7.660815843837053757e-62 7.649734644873288175e-62 7.638669474838567099e-62 7.627620310546760822e-62 7.616587128623604161e-62 7.605569905729608920e-62 7.594568619444130327e-62 7.583583245941451807e-62 7.572613762756028285e-62 7.561660147232343159e-62 7.550722375317813751e-62 7.539800425193790647e-62 7.528894273205901444e-62 7.518003896940738482e-62 7.507129273359951579e-62 7.496270379786724753e-62 7.485427193467638340e-62 7.474599691790957661e-62 7.463787851851346801e-62 7.452991650560635252e-62 7.442211066382108230e-62 7.431446075967092974e-62 7.420696656867859962e-62 7.409962786884339941e-62 7.399244443093460036e-62 7.388541603467313876e-62 7.377854244827010593e-62 7.367182345638550616e-62 7.356525883324841526e-62 7.345884834914794213e-62 7.335259178967719454e-62 7.324648893004357939e-62 7.314053954578892193e-62 7.303474341172617207e-62 7.292910031468171697e-62 7.282361002585754310e-62 7.271827232845892670e-62 7.261308699753308238e-62 7.250805382007739346e-62 7.240317257177563787e-62 7.229844302760229644e-62 7.219386497653745267e-62 7.208943819524145382e-62 7.198516246490601890e-62 7.188103756913139930e-62 7.177706328764378214e-62 7.167323940362603279e-62 7.156956569848714760e-62 7.146604195603677053e-62 7.136266795935428840e-62 7.125944348872197118e-62 7.115636833407258407e-62 7.105344227631008891e-62 7.095066509873378393e-62 7.084803658392993933e-62 7.074555652304414063e-62 7.064322470030125876e-62 7.054104089305724983e-62 7.043900489645115003e-62 7.033711649257222673e-62 7.023537546793098197e-62 7.013378161138790559e-62 7.003233470802360056e-62 6.993103454629130095e-62 6.982988091088119444e-62 6.972887359594033239e-62 6.962801238676811510e-62 6.952729706898770417e-62 6.942672743561759374e-62 6.932630327592279179e-62 6.922602437947314579e-62 6.912589053010739494e-62 6.902590152405667942e-62 6.892605715180268793e-62 6.882635720312858993e-62 6.872680146912612443e-62 6.862738973819322808e-62 6.852812180802185763e-62 6.842899746462136688e-62 6.833001650527422862e-62 6.823117872058431606e-62 6.813248389849264345e-62 6.803393184013877784e-62 6.793552233702964202e-62 6.783725518098234407e-62 6.773913016609514962e-62 6.764114708873279174e-62 6.754330573964870481e-62 6.744560591580483884e-62 6.734804741640839227e-62 6.725063003408962024e-62 6.715335356276868468e-62 6.705621779862395878e-62 6.695922254300052448e-62 6.686236758777991566e-62 6.676565273099526090e-62 6.666907777193776261e-62 6.657264250921175418e-62 6.647634673687192315e-62 6.638019025218551673e-62 6.628417285946916702e-62 6.618829435366574829e-62 6.609255453195504066e-62 6.599695319950160980e-62 6.590149015117791065e-62 6.580616518887715414e-62 6.571097811094594448e-62 6.561592872271471358e-62 6.552101682024020283e-62 6.542624220560732883e-62 6.533160468213385576e-62 6.523710405151511401e-62 6.514274011194152268e-62 6.504851266948450559e-62 6.495442152480826914e-62 6.486046648359282870e-62 6.476664734330465065e-62 6.467296391396224190e-62 6.457941599173397497e-62 6.448600339094522267e-62 6.439272590459326004e-62 6.429958334567291996e-62 6.420657551713537854e-62 6.411370221849303639e-62 6.402096326261539829e-62 6.392835845330748970e-62 6.383588759466619541e-62 6.374355049107987951e-62 6.365134695278537127e-62 6.355927678565336402e-62 6.346733979583938058e-62 6.337553579162781115e-62 6.328386458065547143e-62 6.319232597083741723e-62 6.310091976944831518e-62 6.300964578679633793e-62 6.291850382979375257e-62 6.282749370564004788e-62 6.273661523003801374e-62 6.264586820890145524e-62 6.255525245117167274e-62 6.246476776334335730e-62 6.237441396491420399e-62 6.228419086019555956e-62 6.219409826104975291e-62 6.210413597960731781e-62 6.201430382736418508e-62 6.192460161608895528e-62 6.183502915512305972e-62 6.174558626218206828e-62 6.165627274624965897e-62 6.156708841839323594e-62 6.147803309890750898e-62 6.138910659402279013e-62 6.130030872098514395e-62 6.121163929016353309e-62 6.112309811844290936e-62 6.103468502029696314e-62 6.094639981135466234e-62 6.085824230307977669e-62 6.077021231695174286e-62 6.068230966496786443e-62 6.059453415676743418e-62 6.050688561902121921e-62 6.041936386453734709e-62 6.033196870289822412e-62 6.024469996152569638e-62 6.015755745403901763e-62 6.007054099434229703e-62 5.998365040186124718e-62 5.989688549627519041e-62 5.981024609490566276e-62 5.972373201360403941e-62 5.963734307457423656e-62 5.955107909766253958e-62 5.946493989951074034e-62 5.937892529790122674e-62 5.929303511779006328e-62 5.920726917574825978e-62 5.912162729120811823e-62 5.903610928816230400e-62 5.895071498483822675e-62 5.886544420059403834e-62 5.878029676018878636e-62 5.869527248691189295e-62 5.861037119662496714e-62 5.852559271570178686e-62 5.844093686479580834e-62 5.835640346907326588e-62 5.827199234715848745e-62 5.818770332388378991e-62 5.810353622601850496e-62 5.801949087381353112e-62 5.793556708948058307e-62 5.785176470223069645e-62 5.776808353141236790e-62 5.768452340756979840e-62 5.760108414889367664e-62 5.751776558474775165e-62 5.743456753720232948e-62 5.735148983527623058e-62 5.726853230405423289e-62 5.718569477137427311e-62 5.710297706116129174e-62 5.702037899843549411e-62 5.693790041344873827e-62 5.685554113337460636e-62 5.677330098233201587e-62 5.669117979130839325e-62 5.660917738987372787e-62 5.652729360043421226e-62 5.644552825553458998e-62 5.636388118056215532e-62 5.628235221018023350e-62 5.620094116536326125e-62 5.611964788289646174e-62 5.603847219161456688e-62 5.595741391897486557e-62 5.587647289188175057e-62 5.579564894968308992e-62 5.571494191651594571e-62 5.563435162246703519e-62 5.555387790191444819e-62 5.547352058623280514e-62 5.539327950381635015e-62 5.531315448976082139e-62 5.523314537697530509e-62 5.515325199459413908e-62 5.507347417521847835e-62 5.499381175409239592e-62 5.491426456349143731e-62 5.483483243434130625e-62 5.475551520499387875e-62 5.467631270764890932e-62 5.459722477475579818e-62 5.451825123742651396e-62 5.443939193812187484e-62 5.436064670683933462e-62 5.428201537621258937e-62 5.420349778780415756e-62 5.412509377156395088e-62 5.404680316636313814e-62 5.396862580658022373e-62 5.389056152919272377e-62 5.381261017062749501e-62 5.373477156520216550e-62 5.365704555451151841e-62 5.357943197256229699e-62 5.350193065828623550e-62 5.342454144462185221e-62 5.334726417719045754e-62 5.327009868784965827e-62 5.319304481646785888e-62 5.311610240468421518e-62 5.303927128586348356e-62 5.296255130365411945e-62 5.288594229344512805e-62 5.280944409933360511e-62 5.273305655794847647e-62 5.265677950770081041e-62 5.258061279412842287e-62 5.250455625303673783e-62 5.242860972735505107e-62 5.235277305489706709e-62 5.227704607981017871e-62 5.220142864265586882e-62 5.212592058271244976e-62 5.205052174556009789e-62 5.197523197169152629e-62 5.190005110183675268e-62 5.182497897922518835e-62 5.175001544956891848e-62 5.167516035277435531e-62 5.160041353049431709e-62 5.152577483061557989e-62 5.145124409373826481e-62 5.137682116369661721e-62 5.130250588455075275e-62 5.122829810207730337e-62 5.115419765854754060e-62 5.108020440167380718e-62 5.100631817566461408e-62 5.093253882125122264e-62 5.085886619051598915e-62 5.078530012316291134e-62 5.071184046874692758e-62 5.063848707334013903e-62 5.056523978029403783e-62 5.049209844054702476e-62 5.041906289642965865e-62 5.034613299931129373e-62 5.027330859051514887e-62 5.020058952476864880e-62 5.012797564311793819e-62 5.005546679706522144e-62 4.998306283322027028e-62 4.991076360059992070e-62 4.983856894843625657e-62 4.976647872110691094e-62 4.969449277480389909e-62 4.962261095434218966e-62 4.955083310694321101e-62 4.947915908797896558e-62 4.940758874365896460e-62 4.933612192258460980e-62 4.926475847931768421e-62 4.919349826002137463e-62
